-5.56204
-1.53792
-7.39508
-9.45677
-3.13897
-1.5704
0.360858
-4.18114
-1.75117
-1.66937
3.16272
-3.89159
0.701429
1.16229
4.90394
-3.08745
-0.359441
0.615567
5.22274
-3.90255
1.77581
0.733067
6.94836
-3.49975
3.16471
1.25538
3.59062
-4.67779
2.41197
1.18131
0.594331
-5.58567
-3.34835
1.37495
1.44623
2.57129
-2.20855
-0.578068
1.71954
4.34791
-2.33653
-1.56103
-5.23776
-1.52329
-1.16355
0.286717
-9.83701
-5.90292
-1.08336
-0.938565
-4.09295
-4.80051
0.698463
1.21446
-1.99911
-5.11668
-0.348776
-0.0404323
0.743544
1.94516
0.298294
0.749325
0.193776
1.00682
1.60249
2.00885
1.67378
0.641233
-0.724398
0.704247
-0.177849
-0.988787
0.56354
2.54582
-3.90456
-2.30076
1.15809
3.02334
1.03027
-1.4694
-0.231502
-0.711009
1.55671
4.04969
2.35585
2.68583
-3.68213
1.13459
-3.61394
-6.94033
-1.56234
4.98893
-4.20058
-7.205
1.13494
7.49258
-7.47969
-10.114
-8.81551
4.85118
3.17881
-0.539824
5.44849
1.92467
-8.26467
0.12026
8.15748
-3.78052
7.27283
-2.70707
10.8829
4.55943
-10.6063
9.53915
6.24367
-9.19153
-6.86554
-7.9489
6.61304
