5.13303
2.95887
-7.65065
-9.14587
1.73347
0.0810465
-1.86331
-3.30447
-0.821589
-5.00612
-0.905722
-1.62684
-1.36107
-5.89455
-0.324502
-0.92085
-2.07715
-10.4026
-1.14687
-2.11252
-1.51964
-11.8819
1.83944
2.01239
2.25167
-4.72598
3.12766
3.45535
3.41861
-3.91402
4.39478
7.74788
2.52285
0.0539212
-6.7307
-5.8162
-0.0450259
0.254831
-5.28147
-4.7795
2.64529
5.74036
-2.35921
-3.62092
3.41693
6.28872
-0.647343
-0.536235
2.66835
1.07308
1.45233
-1.08557
4.22698
1.86959
1.93071
4.50945
-0.696465
1.74056
-1.39644
0.854282
-0.877189
1.98403
-1.94119
-0.749447
-1.58541
-0.576701
-0.176479
1.27884
1.28412
2.80681
-1.75672
-0.522977
1.40881
0.897957
-2.35287
-0.00174185
1.93439
-0.580947
-3.54846
0.582764
-3.99027
-4.12385
0.15561
-0.975125
2.44764
8.4918
-0.00620955
3.48629
-0.612243
4.79076
-1.85922
-2.63642
-6.5344
-0.199732
-5.89737
-5.97386
4.78322
13.0425
-9.75244
-11.5157
-4.13103
-3.07334
5.96624
4.3834
-6.41298
-0.376532
6.98179
-6.86093
0.648071
6.74916
-6.44573
-8.50751
9.03871
-10.2841
8.73191
3.68891
8.89145
-2.30364
-10.4618
