2.85143
-1.25422
-0.576727
1.5021
0.964953
-0.073572
-1.99544
1.20506
0.956653
-1.34153
-0.104372
1.25833
-3.57508
-0.631558
0.300963
-2.52222
0.0366791
-0.228228
-3.16971
-1.35934
-1.76088
-2.01492
0.23174
-0.0869458
-3.00079
2.27471
1.31283
-0.527236
-0.0971109
-0.851395
0.547123
-0.0236001
0.804983
-1.6664
0.835111
0.76933
-3.29544
-1.63542
-2.45055
-3.23538
-2.40515
-1.75849
1.23917
-0.937101
-1.14784
3.17756
0.197543
-0.499863
3.78986
-1.64784
-0.280165
4.55456
-1.35553
-1.58582
7.61983
1.00837
1.51456
0.954997
2.40718
4.17352
5.3301
3.51703
4.59869
2.91025
1.46732
1.90787
-2.24939
1.6917
0.1198
-2.44137
1.06952
1.02134
4.02915
2.61574
2.87868
-0.906101
-6.48625
-7.6005
-10.5272
0.753444
10.3548
1.70621
6.77644
-7.97987
-1.44199
4.64345
-4.15062
5.07545
-5.82983
-4.69102
-0.672
-0.609
-0.593
-0.06
-0.294
0.903
-0.513
-0.949
-0.886
0.629
-0.691
-0.857
-0.392
0.863
0.812
0.751
-0.968
-0.842
0.625
0.509
-0.626
-0.656
-0.209
0.384
0.609
0.408
-0.7
0.092
0.703
-0.492
-0.93
-0.843
0.833
0.231
0.882
-0.228
0.833
-1
0.718
0.776
-0.567
-0.956
-0.051
0.825
0.302
-0.56
-0.405
-0.006
-0.739
0.977
0.169
-0.107
-0.667
-0.145
-0.044
-0.613
0.085
0.679
0.993
0.435
0.407
-0.544
0.54
0.867
-0.227
0.048
0.833
0.589
0.378
-0.896
-0.47
0.044
0.581
0.141
-0.357
0.656
-0.294
-0.495
-0.326
0.837
0.385
0.258
0.13
-0.694
-0.013
0.568
-0.406
0.657
-0.534
0.965
-0.659
-0.383
-0.672
-0.111
0.197
-0.158
-0.831
-0.658
-0.376
0.805
0.718
-0.681
-0.141
-0.488
-0.724
0.567
0
-0.677
-0.052
0.304
0.268
0.499
0.315
-0.326
-0.516
-0.125
0.998
0.459
-0.094
0.744
0.305
-0.6
-0.979
0.036
0.266
0.474
0.288
0.189
0.266
0.117
0.884
-0.761
-0.42
-0.923
0.143
-0.705
0.545
0.697
-0.345
-0.279
0.306
0.853
0.562
0.557
-0.68
0.227
-0.336
0.941
-0.519
0.026
0.747
0.587
-0.412
-0.942
0.621
-0.68
-0.818
0.47
-0.493
0.608
0.157
-0.358
0.641
-0.988
-0.682
0.287
-0.794
-0.36
-0.238
0.549
0.209
0.606
0.423
-0.127
0.516
0.418
0.244
0.72
-0.44
-0.68
-0.643
0.591
0.344
-0.866
0.234
0.708
0.731
0.706
-0.122
0.833
-0.022
-0.461
0.249
-0.06
-0.067
0.954
-0.982
-0.855
-0.898
-0.377
-0.191
-0.4
-0.147
-0.021
0.963
-0.367
0.469
-0.699
-0.897
0.365
-0.69
0.779
-0.86
-0.441
0.612
-0.148
0.566
-0.941
0.393
-0.284
0.737
0.366
-0.921
-0.225
0.061
-0.769
-0.807
0.769
0.723
-0.501
-0.406
0.054
0.174
-0.721
-0.435
0.277
0.405
-0.998
-0.834
-0.102
0.52
-0.152
0.665
0.756
0.105
-0.473
-0.997
0.204
0.302
0.755
-0.635
-0.936
-0.86
0.677
0.104
-0.673
0.966
0.268
0.141
-0.194
0.222
-0.806
0.212
0.122
0.794
-0.846
-0.944
-0.778
-0.669
-0.352
-0.63
0.049
0.265
-0.917
0.724
0.415
0.413
-0.235
0.389
-0.991
-0.613
-0.285
0.501
0.589
0.398
0.77
-0.015
-0.69
0.425
-0.582
0.703
-0.012
0.376
-0.731
-0.161
-0.9
0.167
-0.332
-0.461
0.37
-0.686
-0.21
-0.671
0.132
-0.003
0.554
0.789
0.248
0.709
-0.944
-0.58
-0.207
0.71
0.795
-0.865
-0.914
0.143
0.705
-0.116
-0.524
-0.269
-0.986
-0.596
-0.019
0.929
-0.883
-0.016
-0.736
0.886
-0.511
0.093
0.979
0.481
-0.285
0.954
0.031
0.583
0.085
-0.569
0.259
-0.775
0.663
-0.8
-0.453
-0.989
0.959
-0.766
0.402
0.23
-0.482
0.046
0.31
-0.264
0.689
-0.676
-0.996
0.938
-0.715
-0.575
0.003
-0.614
-0.977
0.05
-0.905
0.761
-0.72
-0.025
-0.872
-0.589
-0.964
0.647
-0.065
0.891
-0.216
-0.946
-0.076
-0.997
-0.868
0.81
-0.031
0.245
-0.144
-0.086
-0.426
-0.682
0.858
0.406
-0.258
0.736
-0.009
-0.449
0.402
-0.552
-0.345
0.343
-0.068
0.3
-0.882
0.836
-0.577
-0.727
0.92
0.209
-0.507
-0.179
-0.211
0.79
0.777
0.184
0.022
-0.982
0.982
-0.984
-0.065
-0.826
-0.833
0.725
0.093
0.571
-0.639
0.634
0.241
0.791
-0.586
0.438
0.237
0.404
-0.181
0.226
-0.361
0.433
0.085
-0.301
-0.788
-0.203
-0.001
0.994
-0.969
0.609
0.775
0.826
0.13
-0.475
0.937
-0.399
0.507
-0.25
-0.212
-0.805
-0.437
-0.601
0.48
-0.797
-0.955
-0.749
0.987
0.425
-0.581
-0.079
0.444
0.055
0.112
-0.857
0.434
-0.481
0.973
-0.797
-0.703
0.133
0.532
-0.861
0.244
0.437
0.865
0.194
0.325
-0.664
0.109
-0.06
-0.773
-0.446
-0.587
0.404
0.228
-0.273
-0.597
0.523
0.307
0.384
0.763
-0.044
-0.885
-0.159
-0.255
0.894
-0.355
0.509
-0.519
-0.654
-0.002
-0.845
-0.058
-0.987
-0.595
0.538
-0.76
0.304
-0.413
-0.941
0.952
0.206
-0.628
0.607
0.373
-0.714
0.741
0.753
0.468
-0.646
-0.857
0.292
-0.317
-0.241
0.083
-0.528
-0.369
-0.738
-0.835
-0.535
-0.281
-0.118
-0.754
-0.183
-0.496
0.131
0.357
0.4
-0.15
-0.71
-0.082
-0.584
-0.546
0.988
0.289
-0.712
-0.147
-0.781
-0.449
0.175
0.472
-0.684
0.332
-0.467
0.861
0.176
0.127
0.221
-0.881
-0.713
-0.917
0.68
0.113
-0.024
-0.83
-0.327
0.083
-0.426
0.951
0.369
0.848
-0.209
0.793
0.523
-0.249
0.842
0.781
0.802
-0.823
-0.721
0.362
-0.191
-0.526
-0.66
-0.789
0.812
-0.42
0.388
0.785
0.414
0.544
-0.79
-0.857
0.626
-0.641
-0.449
-0.71
-0.955
0.416
-0.024
0.824
-0.02
0.634
-0.316
0.072
0.77
0.948
-0.195
-0.565
0.149
-0.71
-0.5
-0.895
0.258
0.979
0.258
0.671
-0.979
-0.206
-0.924
-0.257
0.662
-0.166
-0.394
-0.247
0.409
-0.139
0.444
0.353
-0.94
0.246
-0.571
0.912
0.14
0.239
-0.222
-0.44
-0.331
-0.158
0.685
0.647
0.724
0.508
-0.215
-0.489
0.641
-0.056
-0.811
-0.716
0.61
0.878
-0.426
0.501
0.499
0.46
0.549
-0.45
0.505
-0.682
-0.428
0.085
-0.205
-0.964
0.711
0.323
-0.542
-0.517
-0.975
-0.866
0.827
-0.298
0.492
-0.331
-0.261
-0.537
0.653
-0.564
0.106
-0.512
0.807
0.52
0.579
0.103
-0.145
0.829
0.147
0.13
0.624
0.678
0.464
0.415
0.32
-0.236
0.732
-0.969
-0.381
-0.548
0.154
0.083
0.046
0.794
0.128
0.703
0.318
0.618
-0.835
0.303
0.522
-0.072
-0.067
0.688
-0.282
0.95
-0.101
0.32
0.938
-0.289
-0.906
-0.352
-0.845
0.601
-0.555
-0.114
-0.075
0.251
-0.185
0.425
0.463
-0.027
-0.293
0.675
-0.015
0.728
-0.593
-0.062
-0.703
0.33
0.207
-0.894
0.995
-0.571
-0.884
-0.399
-0.731
0.765
0.028
-0.692
0.743
-0.607
0.001
-0.294
0.8
0.415
0.83
-0.153
0.573
0.861
0.536
0.004
-0.278
0.07
0.345
0.797
0.47
0.161
0.571
-0.629
-0.014
-0.44
-0.125
-0.933
0.635
0.071
-0.532
0.782
-0.84
0.18
-0.634
0.739
-0.619
0.287
0.093
-0.974
-0.19
0.729
-0.897
-0.342
-0.794
-0.182
0.841
0.174
-0.664
0.893
0.817
-0.485
-0.049
-0.657
0.281
0.557
0.312
0.712
0.498
0.77
-0.312
0.568
-0.784
-0.785
-0.094
0.918
0.925
0.161
-0.542
-0.656
-0.154
0.2
0.305
0.132
0.913
0.264
0.218
0.851
-0.607
0.904
0.427
0.588
-0.238
0.146
-0.825
-0.729
0.318
-0.008
-0.758
0.757
0.56
0.055
0.904
0.775
-0.326
-0.241
-0.795
-0.29
0.035
0.658
-0.982
0.419
-0.811
-0.437
0.759
-0.807
-0.73
-0.59
-0.972
0.991
0.869
-0.819
0.413
-0.774
-0.296
0.264
-0.963
-0.957
0.004
-0.968
-0.535
-0.515
-0.244
-0.98
0.944
-0.999
-0.131
-0.123
-0.334
0.157
-0.374
-0.312
-0.817
0.162
-0.445
-0.302
-0.031
0.445
-0.805
-0.276
0.877
0.385
-0.374
0.974
0.55
0.691
0.4
-0.344
0.322
-0.114
-0.788
-0.865
-0.255
-0.936
0.556
0.213
-0.981
0.517
-0.525
0.318
0.863
-0.555
-0.89
0.998
-0.292
0.396
0.472
0.878
0.654
-0.875
0.049
-0.217
0.419
0.533
-0.575
-0.907
-0.528
0.543
-0.449
-0.142
-0.67
0.36
0.382
0.533
-0.088
0.602
0.402
-0.668
-0.96
0.038
-0.862
-0.057
0.303
-0.291
-0.963
0.063
-0.603
-0.991
-0.351
-0.649
-0.4
-0.121
0.33
-0.07
-0.416
-0.432
-0.663
0.821
0.059
0.232
-0.923
-0.562
0.769
-0.93
-0.314
-0.938
0.787
-0.25
0.207
-0.581
-0.065
-0.613
-0.565
0.368
0.607
-0.567
0.764
-0.175
0.403
-0.087
-0.624
0.05
0.412
0.014
0.309
-0.68
0.779
-0.319
0.335
0.474
-0.999
-0.616
0.023
0.568
0.6
-0.516
0.789
0.845
-0.512
-0.225
0.783
-0.606
0.832
0.705
0.157
0.687
0.982
0.286
0.062
-0.699
-0.932
0.433
0.883
0.349
0.393
-0.742
0.794
0.338
-0.323
0.246
0.622
-0.349
-0.742
0
0.842
0.969
0.838
0.568
0.276
0.281
-0.674
0.515
-0.312
0.412
0.492
-0.748
-0.287
0.349
0.332
-0.454
0
0.131
0.172
-0.215
-0.698
0.272
0.498
-0.435
0.196
-0.808
0.307
0.908
-0.635
-0.858
-0.736
-0.676
-0.726
-0.66
-0.221
0.55
-0.249
-0.422
-0.485
0.873
0.956
-0.687
-0.107
-0.671
0.263
0.744
-0.564
0.921
-0.681
0.414
-0.19
-0.546
0.868
0.625
0.159
0.822
-0.707
-0.049
0.552
0.418
-0.75
0.779
0.884
-0.8
-0.496
0.749
-0.2
0.639
-0.363
-0.429
-0.28
0.051
0.004
0.314
-0.678
-0.479
0.691
0.86
-0.46
-0.496
-0.589
-0.92
-0.82
-0.343
-0.013
0.114
-0.608
-0.044
0.737
-0.242
-0.919
-0.957
0.035
0.189
-0.719
-0.339
-0.555
0.039
0.034
-0.21
0.771
0.122
-0.159
0.716
0.186
-0.095
0.731
0.829
0.09
-0.279
-0.05
0.343
-0.434
-0.656
-0.517
-0.839
-0.081
0.862
0.379
-0.808
0.006
0.153
0.192
-0.788
0.321
-0.189
0.829
-0.723
-0.232
-0.921
0.776
-0.952
0.688
-0.524
-0.529
0.934
-0.065
0.585
0.105
-0.546
0.337
0.082
-0.753
0.649
0.171
-0.59
-0.918
0.199
0.83
-0.078
0.062
0.049
0.654
-0.472
-0.483
0.207
-0.279
0.588
0.128
-0.723
-0.599
-0.891
0.514
0.489
0.731
-0.303
-0.29
-0.49
0.005
0.552
0.379
0.477
0.503
-0.548
0.113
0.502
-0.085
-0.754
-0.387
-0.775
0.779
-0.59
-0.762
0.193
-0.716
0.672
-0.367
0.611
-0.582
0.492
0.994
-0.689
-0.611
0.056
0.868
0.1
-0.87
-0.151
-0.069
-0.424
0.9
-0.953
-0.04
-0.68
-0.38
0.121
-0.852
0.332
-0.257
0.033
-0.415
-0.353
0.679
0.803
-0.107
0.942
-0.123
0.236
-0.152
-0.417
0.357
0.928
-0.184
0.98
0.098
-0.236
-0.005
-0.544
-0.22
-0.914
-0.162
0.217
0.103
-0.406
-0.005
0.526
0.607
0.766
-0.641
-0.229
-0.056
-0.656
0.749
-0.117
-0.467
-0.819
0.738
0.601
0.165
0.143
0.964
0.473
0.768
0.517
-0.009
-0.082
-0.667
0.705
-0.106
-0.294
-0.603
-0.933
-0.343
0.003
-0.346
0.371
-0.547
-0.449
-0.908
0.983
0.25
0.252
-0.333
-0.185
-0.479
-0.717
-0.248
0.135
-0.235
-0.13
-0.727
0.181
0.284
-0.345
0.722
-0.773
0.629
0.547
-0.151
0.279
-0.452
0.351
-0.972
-0.134
0.907
-0.679
0.761
0.286
-0.012
0.083
0.326
0.476
-0.403
0.675
-0.334
0.972
0.954
-0.066
-0.668
-0.211
0.177
0.663
0.611
0.36
-0.694
-0.046
0.494
0.352
0.566
0.126
-0.403
0.845
-0.286
-0.382
0.775
0.346
-0.836
-0.985
-0.363
-0.725
0.757
0.615
0.519
-0.557
