3.799
8.7546
3.76919
6.27535
2.78869
1.17294
4.89914
0.583402
-0.939925
-1.58732
4.24838
-0.338873
-2.48763
-3.48545
5.53644
-1.78959
-2.52847
-1.44366
6.75532
-2.23727
-2.16536
-6.3271
7.35055
-3.93171
2.64705
-3.77131
5.94563
-4.98404
2.36073
-1.19096
2.31059
-4.96952
4.54422
-8.22191
-6.10269
-0.539695
0.408774
-5.74872
-3.26742
-1.53537
2.22806
5.80646
1.24829
-0.202775
5.86664
9.33194
0.847767
-1.71037
0.381469
1.55885
2.22654
-3.97826
1.17364
-2.17924
-1.12934
-4.5126
-0.954437
-5.47436
-5.62732
-2.57718
1.31274
-0.498694
-5.15535
-2.38603
-3.00123
-0.482073
-5.00602
-2.16102
-2.12383
4.2624
-2.75235
-2.31167
-1.21451
4.89917
1.25345
-0.532733
-0.986796
2.96459
-3.18074
-4.13321
-4.48229
-2.06588
2.28012
0.4274
3.24683
7.26495
-0.993018
-2.21902
-0.573978
6.15927
-0.862253
-1.5938
-2.82982
-1.59954
0.0704192
3.63724
1.04084
11.6034
1.3045
1.10506
0.103795
-6.83358
-1.83402
7.07545
-6.49661
0.555476
6.42336
-5.86029
-7.47934
8.80486
8.17401
-7.68038
-4.67046
10.6384
-3.89243
-7.15706
0.250471
4.72113
-6.77136
